<?xml version="1.0"?>
<opencv_storage>
<cascade>
  <stageType>BOOST</stageType>
  <featureType>HAAR</featureType>
  <height>32</height>
  <width>32</width>
  <stageParams>
    <boostType>GAB</boostType>
    <minHitRate>9.9500000476837158e-01</minHitRate>
    <maxFalseAlarm>5.0000000000000000e-01</maxFalseAlarm>
    <weightTrimRate>9.4999998807907104e-01</weightTrimRate>
    <maxDepth>1</maxDepth>
    <maxWeakCount>100</maxWeakCount></stageParams>
  <featureParams>
    <maxCatCount>0</maxCatCount>
    <featSize>1</featSize>
    <mode>BASIC</mode></featureParams>
  <stageNum>12</stageNum>
  <stages>
    <!-- stage 0 -->
    <_>
      <maxWeakCount>2</maxWeakCount>
      <stageThreshold>-4.7680622339248657e-01</stageThreshold>
      <weakClassifiers>
        <_>
          <internalNodes>
            0 -1 21 -1.7602729797363281e-01</internalNodes>
          <leafValues>
            8.7096774578094482e-01 -9.6699672937393188e-01</leafValues></_>
        <_>
          <internalNodes>
            0 -1 25 -8.6851470172405243e-02</internalNodes>
          <leafValues>
            4.9019047617912292e-01 -9.8485684394836426e-01</leafValues></_></weakClassifiers></_>
    <!-- stage 1 -->
    <_>
      <maxWeakCount>2</maxWeakCount>
      <stageThreshold>-7.5897365808486938e-01</stageThreshold>
      <weakClassifiers>
        <_>
          <internalNodes>
            0 -1 0 9.6926592290401459e-02</internalNodes>
          <leafValues>
            -9.5172411203384399e-01 2.2727273404598236e-01</leafValues></_>
        <_>
          <internalNodes>
            0 -1 14 5.1184087991714478e-02</internalNodes>
          <leafValues>
            -9.8624640703201294e-01 4.2852562665939331e-01</leafValues></_></weakClassifiers></_>
    <!-- stage 2 -->
    <_>
      <maxWeakCount>3</maxWeakCount>
      <stageThreshold>-1.2420327663421631e+00</stageThreshold>
      <weakClassifiers>
        <_>
          <internalNodes>
            0 -1 11 -3.6211645603179932e-01</internalNodes>
          <leafValues>
            4.8571428656578064e-01 -9.4648832082748413e-01</leafValues></_>
        <_>
          <internalNodes>
            0 -1 1 4.7454209998250008e-03</internalNodes>
          <leafValues>
            -8.3532923460006714e-01 4.5700934529304504e-01</leafValues></_>
        <_>
          <internalNodes>
            0 -1 23 -4.9423635005950928e-02</internalNodes>
          <leafValues>
            6.7978394031524658e-01 -7.5255376100540161e-01</leafValues></_></weakClassifiers></_>
    <!-- stage 3 -->
    <_>
      <maxWeakCount>3</maxWeakCount>
      <stageThreshold>-8.9619672298431396e-01</stageThreshold>
      <weakClassifiers>
        <_>
          <internalNodes>
            0 -1 30 7.8797191381454468e-03</internalNodes>
          <leafValues>
            -8.6750787496566772e-01 5.2941179275512695e-01</leafValues></_>
        <_>
          <internalNodes>
            0 -1 18 -3.4925734996795654e-01</internalNodes>
          <leafValues>
            5.5485302209854126e-01 -7.9348063468933105e-01</leafValues></_>
        <_>
          <internalNodes>
            0 -1 27 1.5404876321554184e-03</internalNodes>
          <leafValues>
            -5.8354187011718750e-01 8.8144671916961670e-01</leafValues></_></weakClassifiers></_>
    <!-- stage 4 -->
    <_>
      <maxWeakCount>3</maxWeakCount>
      <stageThreshold>-1.3023806810379028e+00</stageThreshold>
      <weakClassifiers>
        <_>
          <internalNodes>
            0 -1 6 4.8436164855957031e-02</internalNodes>
          <leafValues>
            -9.3856656551361084e-01 2.1951219439506531e-01</leafValues></_>
        <_>
          <internalNodes>
            0 -1 9 6.8020046455785632e-04</internalNodes>
          <leafValues>
            -7.9293304681777954e-01 4.3391740322113037e-01</leafValues></_>
        <_>
          <internalNodes>
            0 -1 31 5.0750952214002609e-03</internalNodes>
          <leafValues>
            -7.2895985841751099e-01 6.3058668375015259e-01</leafValues></_></weakClassifiers></_>
    <!-- stage 5 -->
    <_>
      <maxWeakCount>3</maxWeakCount>
      <stageThreshold>-1.2249218225479126e+00</stageThreshold>
      <weakClassifiers>
        <_>
          <internalNodes>
            0 -1 10 1.8649503588676453e-02</internalNodes>
          <leafValues>
            -8.5758513212203979e-01 1.</leafValues></_>
        <_>
          <internalNodes>
            0 -1 4 1.1983100324869156e-02</internalNodes>
          <leafValues>
            -8.4357422590255737e-01 4.7073298692703247e-01</leafValues></_>
        <_>
          <internalNodes>
            0 -1 16 -3.2051362097263336e-02</internalNodes>
          <leafValues>
            4.7623747587203979e-01 -7.6544672250747681e-01</leafValues></_></weakClassifiers></_>
    <!-- stage 6 -->
    <_>
      <maxWeakCount>2</maxWeakCount>
      <stageThreshold>-7.0899194478988647e-01</stageThreshold>
      <weakClassifiers>
        <_>
          <internalNodes>
            0 -1 3 1.8508806824684143e-02</internalNodes>
          <leafValues>
            -8.7341773509979248e-01 5.5555558204650879e-01</leafValues></_>
        <_>
          <internalNodes>
            0 -1 7 4.6595968306064606e-03</internalNodes>
          <leafValues>
            -9.6313315629959106e-01 1.6442580521106720e-01</leafValues></_></weakClassifiers></_>
    <!-- stage 7 -->
    <_>
      <maxWeakCount>3</maxWeakCount>
      <stageThreshold>-1.3972778320312500e+00</stageThreshold>
      <weakClassifiers>
        <_>
          <internalNodes>
            0 -1 17 -3.7658656947314739e-03</internalNodes>
          <leafValues>
            1.7241379618644714e-01 -8.8852459192276001e-01</leafValues></_>
        <_>
          <internalNodes>
            0 -1 20 -1.7343919724225998e-02</internalNodes>
          <leafValues>
            4.5400726795196533e-01 -7.5515609979629517e-01</leafValues></_>
        <_>
          <internalNodes>
            0 -1 26 -2.0306149963289499e-03</internalNodes>
          <leafValues>
            5.5727416276931763e-01 -8.1453543901443481e-01</leafValues></_></weakClassifiers></_>
    <!-- stage 8 -->
    <_>
      <maxWeakCount>3</maxWeakCount>
      <stageThreshold>-1.3360718488693237e+00</stageThreshold>
      <weakClassifiers>
        <_>
          <internalNodes>
            0 -1 13 -2.1738320589065552e-01</internalNodes>
          <leafValues>
            1.4285714924335480e-01 -9.3150687217712402e-01</leafValues></_>
        <_>
          <internalNodes>
            0 -1 24 -1.8502282910048962e-03</internalNodes>
          <leafValues>
            4.1556116938591003e-01 -7.9206907749176025e-01</leafValues></_>
        <_>
          <internalNodes>
            0 -1 8 1.6962476074695587e-03</internalNodes>
          <leafValues>
            -6.8685990571975708e-01 4.8931935429573059e-01</leafValues></_></weakClassifiers></_>
    <!-- stage 9 -->
    <_>
      <maxWeakCount>3</maxWeakCount>
      <stageThreshold>-9.7404271364212036e-01</stageThreshold>
      <weakClassifiers>
        <_>
          <internalNodes>
            0 -1 12 1.0124796628952026e-01</internalNodes>
          <leafValues>
            -8.6915886402130127e-01 1.</leafValues></_>
        <_>
          <internalNodes>
            0 -1 29 -1.6083442606031895e-03</internalNodes>
          <leafValues>
            7.4099659919738770e-01 -7.2794115543365479e-01</leafValues></_>
        <_>
          <internalNodes>
            0 -1 2 1.9152739644050598e-01</internalNodes>
          <leafValues>
            -7.6780396699905396e-01 6.2305730581283569e-01</leafValues></_></weakClassifiers></_>
    <!-- stage 10 -->
    <_>
      <maxWeakCount>3</maxWeakCount>
      <stageThreshold>-1.2007902860641479e+00</stageThreshold>
      <weakClassifiers>
        <_>
          <internalNodes>
            0 -1 5 -5.3261363506317139e-01</internalNodes>
          <leafValues>
            1. -8.5758513212203979e-01</leafValues></_>
        <_>
          <internalNodes>
            0 -1 22 3.1299367547035217e-02</internalNodes>
          <leafValues>
            -7.8984606266021729e-01 7.1035367250442505e-01</leafValues></_>
        <_>
          <internalNodes>
            0 -1 32 1.1595889925956726e-02</internalNodes>
          <leafValues>
            -7.9513168334960938e-01 4.4664093852043152e-01</leafValues></_></weakClassifiers></_>
    <!-- stage 11 -->
    <_>
      <maxWeakCount>3</maxWeakCount>
      <stageThreshold>-1.0829255580902100e+00</stageThreshold>
      <weakClassifiers>
        <_>
          <internalNodes>
            0 -1 28 -1.0556763038039207e-02</internalNodes>
          <leafValues>
            1. -8.6335402727127075e-01</leafValues></_>
        <_>
          <internalNodes>
            0 -1 15 -2.1828064695000648e-02</internalNodes>
          <leafValues>
            7.9663956165313721e-01 -6.5143328905105591e-01</leafValues></_>
        <_>
          <internalNodes>
            0 -1 19 1.9341789186000824e-02</internalNodes>
          <leafValues>
            -1. 4.3186175823211670e-01</leafValues></_></weakClassifiers></_></stages>
  <features>
    <_>
      <rects>
        <_>
          0 0 21 13 -1.</_>
        <_>
          7 0 7 13 3.</_></rects>
      <tilted>0</tilted></_>
    <_>
      <rects>
        <_>
          0 3 2 14 -1.</_>
        <_>
          1 3 1 14 2.</_></rects>
      <tilted>0</tilted></_>
    <_>
      <rects>
        <_>
          0 6 27 17 -1.</_>
        <_>
          9 6 9 17 3.</_></rects>
      <tilted>0</tilted></_>
    <_>
      <rects>
        <_>
          0 8 6 8 -1.</_>
        <_>
          2 8 2 8 3.</_></rects>
      <tilted>0</tilted></_>
    <_>
      <rects>
        <_>
          0 10 20 6 -1.</_>
        <_>
          0 10 10 3 2.</_>
        <_>
          10 13 10 3 2.</_></rects>
      <tilted>0</tilted></_>
    <_>
      <rects>
        <_>
          1 4 29 26 -1.</_>
        <_>
          1 17 29 13 2.</_></rects>
      <tilted>0</tilted></_>
    <_>
      <rects>
        <_>
          2 7 10 11 -1.</_>
        <_>
          7 7 5 11 2.</_></rects>
      <tilted>0</tilted></_>
    <_>
      <rects>
        <_>
          2 24 24 3 -1.</_>
        <_>
          10 24 8 3 3.</_></rects>
      <tilted>0</tilted></_>
    <_>
      <rects>
        <_>
          4 7 24 2 -1.</_>
        <_>
          4 7 12 1 2.</_>
        <_>
          16 8 12 1 2.</_></rects>
      <tilted>0</tilted></_>
    <_>
      <rects>
        <_>
          5 2 2 2 -1.</_>
        <_>
          6 2 1 2 2.</_></rects>
      <tilted>0</tilted></_>
    <_>
      <rects>
        <_>
          5 8 6 14 -1.</_>
        <_>
          5 8 3 7 2.</_>
        <_>
          8 15 3 7 2.</_></rects>
      <tilted>0</tilted></_>
    <_>
      <rects>
        <_>
          6 10 20 22 -1.</_>
        <_>
          6 21 20 11 2.</_></rects>
      <tilted>0</tilted></_>
    <_>
      <rects>
        <_>
          7 11 17 12 -1.</_>
        <_>
          7 15 17 4 3.</_></rects>
      <tilted>0</tilted></_>
    <_>
      <rects>
        <_>
          7 12 12 20 -1.</_>
        <_>
          7 22 12 10 2.</_></rects>
      <tilted>0</tilted></_>
    <_>
      <rects>
        <_>
          8 0 16 16 -1.</_>
        <_>
          8 8 16 8 2.</_></rects>
      <tilted>0</tilted></_>
    <_>
      <rects>
        <_>
          8 4 1 26 -1.</_>
        <_>
          8 17 1 13 2.</_></rects>
      <tilted>0</tilted></_>
    <_>
      <rects>
        <_>
          9 22 20 6 -1.</_>
        <_>
          9 25 20 3 2.</_></rects>
      <tilted>0</tilted></_>
    <_>
      <rects>
        <_>
          9 29 16 2 -1.</_>
        <_>
          9 30 16 1 2.</_></rects>
      <tilted>0</tilted></_>
    <_>
      <rects>
        <_>
          10 8 16 24 -1.</_>
        <_>
          10 20 16 12 2.</_></rects>
      <tilted>0</tilted></_>
    <_>
      <rects>
        <_>
          11 0 21 31 -1.</_>
        <_>
          18 0 7 31 3.</_></rects>
      <tilted>0</tilted></_>
    <_>
      <rects>
        <_>
          11 4 15 10 -1.</_>
        <_>
          16 4 5 10 3.</_></rects>
      <tilted>0</tilted></_>
    <_>
      <rects>
        <_>
          12 13 13 18 -1.</_>
        <_>
          12 22 13 9 2.</_></rects>
      <tilted>0</tilted></_>
    <_>
      <rects>
        <_>
          14 13 6 12 -1.</_>
        <_>
          14 17 6 4 3.</_></rects>
      <tilted>0</tilted></_>
    <_>
      <rects>
        <_>
          15 21 11 10 -1.</_>
        <_>
          15 26 11 5 2.</_></rects>
      <tilted>0</tilted></_>
    <_>
      <rects>
        <_>
          16 4 2 10 -1.</_>
        <_>
          17 4 1 10 2.</_></rects>
      <tilted>0</tilted></_>
    <_>
      <rects>
        <_>
          16 10 16 14 -1.</_>
        <_>
          24 10 8 14 2.</_></rects>
      <tilted>0</tilted></_>
    <_>
      <rects>
        <_>
          21 1 8 1 -1.</_>
        <_>
          25 1 4 1 2.</_></rects>
      <tilted>0</tilted></_>
    <_>
      <rects>
        <_>
          24 16 3 3 -1.</_>
        <_>
          25 16 1 3 3.</_></rects>
      <tilted>0</tilted></_>
    <_>
      <rects>
        <_>
          25 4 3 25 -1.</_>
        <_>
          26 4 1 25 3.</_></rects>
      <tilted>0</tilted></_>
    <_>
      <rects>
        <_>
          26 6 2 3 -1.</_>
        <_>
          27 6 1 3 2.</_></rects>
      <tilted>0</tilted></_>
    <_>
      <rects>
        <_>
          26 10 3 16 -1.</_>
        <_>
          27 10 1 16 3.</_></rects>
      <tilted>0</tilted></_>
    <_>
      <rects>
        <_>
          26 10 6 12 -1.</_>
        <_>
          28 10 2 12 3.</_></rects>
      <tilted>0</tilted></_>
    <_>
      <rects>
        <_>
          27 2 3 27 -1.</_>
        <_>
          27 11 3 9 3.</_></rects>
      <tilted>0</tilted></_></features></cascade>
</opencv_storage>
